<?xml version="1.0"?>
<opencv_storage>
<stage8>
  <maxWeakCount>75</maxWeakCount>
  <stageThreshold>-7.4927222728729248e-01</stageThreshold>
  <weakClassifiers>
    <_>
      <internalNodes>
        0 -1 28631 -5.4357880353927612e-01</internalNodes>
      <leafValues>
        -1.6030533611774445e-01 4.1742521524429321e-01</leafValues></_>
    <_>
      <internalNodes>
        0 -1 43260 -3.1134213786572218e-03</internalNodes>
      <leafValues>
        4.7726535797119141e-01 -7.5581021606922150e-02</leafValues></_>
    <_>
      <internalNodes>
        0 -1 43260 8.8075585663318634e-03</internalNodes>
      <leafValues>
        -5.6856058537960052e-02 6.2927156686782837e-01</leafValues></_>
    <_>
      <internalNodes>
        0 -1 76281 -3.0662067001685500e-04</internalNodes>
      <leafValues>
        3.4393769502639771e-01 -1.2235194444656372e-01</leafValues></_>
    <_>
      <internalNodes>
        0 -1 76281 2.9662786982953548e-04</internalNodes>
      <leafValues>
        -8.6686260998249054e-02 3.3400353789329529e-01</leafValues></_>
    <_>
      <internalNodes>
        0 -1 12597 1.9555771723389626e-03</internalNodes>
      <leafValues>
        -4.7851625829935074e-02 5.8023399114608765e-01</leafValues></_>
    <_>
      <internalNodes>
        0 -1 62733 -1.5040798461996019e-04</internalNodes>
      <leafValues>
        2.8028288483619690e-01 -8.0897167325019836e-02</leafValues></_>
    <_>
      <internalNodes>
        0 -1 2446 -3.7049499951535836e-05</internalNodes>
      <leafValues>
        -2.1239382028579712e-01 9.5760121941566467e-02</leafValues></_>
    <_>
      <internalNodes>
        0 -1 73527 -1.9980468787252903e-03</internalNodes>
      <leafValues>
        5.7590091228485107e-01 -3.2296076416969299e-02</leafValues></_>
    <_>
      <internalNodes>
        0 -1 30880 9.4179958105087280e-03</internalNodes>
      <leafValues>
        8.1067167222499847e-02 -2.6714497804641724e-01</leafValues></_>
    <_>
      <internalNodes>
        0 -1 830 -3.0433598905801773e-02</internalNodes>
      <leafValues>
        -2.7979505062103271e-01 7.7682167291641235e-02</leafValues></_>
    <_>
      <internalNodes>
        0 -1 46873 -1.5388401225209236e-03</internalNodes>
      <leafValues>
        4.3978416919708252e-01 -4.8171777278184891e-02</leafValues></_>
    <_>
      <internalNodes>
        0 -1 58033 1.3977546586829703e-05</internalNodes>
      <leafValues>
        1.4190413057804108e-01 -1.5569676458835602e-01</leafValues></_>
    <_>
      <internalNodes>
        0 -1 29877 -2.7190919965505600e-02</internalNodes>
      <leafValues>
        -5.9535878896713257e-01 2.8276326134800911e-02</leafValues></_>
    <_>
      <internalNodes>
        0 -1 64565 2.1312516182661057e-03</internalNodes>
      <leafValues>
        -8.0985084176063538e-02 2.8248637914657593e-01</leafValues></_>
    <_>
      <internalNodes>
        0 -1 17429 -2.1376858931034803e-03</internalNodes>
      <leafValues>
        -1.8884892761707306e-01 1.0883712023496628e-01</leafValues></_>
    <_>
      <internalNodes>
        0 -1 29264 1.2883465737104416e-02</internalNodes>
      <leafValues>
        -3.6630645394325256e-02 5.4272288084030151e-01</leafValues></_>
    <_>
      <internalNodes>
        0 -1 64507 1.6087743639945984e-01</internalNodes>
      <leafValues>
        3.2276742160320282e-02 -6.6437643766403198e-01</leafValues></_>
    <_>
      <internalNodes>
        0 -1 14606 -1.0815735731739551e-04</internalNodes>
      <leafValues>
        2.1739028394222260e-01 -8.5402786731719971e-02</leafValues></_>
    <_>
      <internalNodes>
        0 -1 64548 -1.5084732323884964e-02</internalNodes>
      <leafValues>
        -3.3082053065299988e-01 5.3258612751960754e-02</leafValues></_>
    <_>
      <internalNodes>
        0 -1 39788 2.8777524828910828e-02</internalNodes>
      <leafValues>
        -2.4112919345498085e-02 8.9074987173080444e-01</leafValues></_>
    <_>
      <internalNodes>
        0 -1 31992 4.8923958092927933e-03</internalNodes>
      <leafValues>
        6.8563677370548248e-02 -2.8644093871116638e-01</leafValues></_>
    <_>
      <internalNodes>
        0 -1 58588 -9.1095059178769588e-04</internalNodes>
      <leafValues>
        3.7036943435668945e-01 -5.4684825241565704e-02</leafValues></_>
    <_>
      <internalNodes>
        0 -1 24959 -3.0313030583783984e-04</internalNodes>
      <leafValues>
        2.1492961049079895e-01 -8.2082517445087433e-02</leafValues></_>
    <_>
      <internalNodes>
        0 -1 6930 1.7113942652940750e-02</internalNodes>
      <leafValues>
        -1.6792522743344307e-02 9.5898938179016113e-01</leafValues></_>
    <_>
      <internalNodes>
        0 -1 35566 -2.3785068187862635e-03</internalNodes>
      <leafValues>
        -1.5756765007972717e-01 1.1321247369050980e-01</leafValues></_>
    <_>
      <internalNodes>
        0 -1 7638 2.1755002439022064e-02</internalNodes>
      <leafValues>
        3.2471042126417160e-02 -4.7570711374282837e-01</leafValues></_>
    <_>
      <internalNodes>
        0 -1 17862 1.0802047327160835e-03</internalNodes>
      <leafValues>
        -5.6481089442968369e-02 3.4240156412124634e-01</leafValues></_>
    <_>
      <internalNodes>
        0 -1 3914 -1.1292955838143826e-02</internalNodes>
      <leafValues>
        4.4830173254013062e-01 -3.5335440188646317e-02</leafValues></_>
    <_>
      <internalNodes>
        0 -1 271 -3.3899163827300072e-03</internalNodes>
      <leafValues>
        -1.8532717227935791e-01 1.0250385105609894e-01</leafValues></_>
    <_>
      <internalNodes>
        0 -1 67960 -1.4054423081688583e-04</internalNodes>
      <leafValues>
        2.3455572128295898e-01 -8.1718765199184418e-02</leafValues></_>
    <_>
      <internalNodes>
        0 -1 15038 3.0462604481726885e-03</internalNodes>
      <leafValues>
        1.0060092061758041e-01 -1.6580444574356079e-01</leafValues></_>
    <_>
      <internalNodes>
        0 -1 45627 2.1821102127432823e-03</internalNodes>
      <leafValues>
        -4.5889485627412796e-02 4.0531876683235168e-01</leafValues></_>
    <_>
      <internalNodes>
        0 -1 55801 -6.5514486050233245e-04</internalNodes>
      <leafValues>
        -1.6378144919872284e-01 1.0655084252357483e-01</leafValues></_>
    <_>
      <internalNodes>
        0 -1 69009 9.9021308124065399e-03</internalNodes>
      <leafValues>
        -4.5528374612331390e-02 3.8938826322555542e-01</leafValues></_>
    <_>
      <internalNodes>
        0 -1 70732 -1.5050071851874236e-05</internalNodes>
      <leafValues>
        -1.6199982166290283e-01 1.1698640137910843e-01</leafValues></_>
    <_>
      <internalNodes>
        0 -1 70534 1.1216439306735992e-02</internalNodes>
      <leafValues>
        1.1585205048322678e-01 -1.8165040016174316e-01</leafValues></_>
    <_>
      <internalNodes>
        0 -1 56658 1.5597112360410392e-04</internalNodes>
      <leafValues>
        -1.0987344384193420e-01 1.7323160171508789e-01</leafValues></_>
    <_>
      <internalNodes>
        0 -1 62283 2.9762564226984978e-03</internalNodes>
      <leafValues>
        1.0405727475881577e-01 -1.7381407320499420e-01</leafValues></_>
    <_>
      <internalNodes>
        0 -1 74941 1.3501207831723150e-05</internalNodes>
      <leafValues>
        1.3748799264431000e-01 -1.4159061014652252e-01</leafValues></_>
    <_>
      <internalNodes>
        0 -1 1470 3.7962102214805782e-04</internalNodes>
      <leafValues>
        -1.0876222699880600e-01 1.8592554330825806e-01</leafValues></_>
    <_>
      <internalNodes>
        0 -1 31676 -6.7245755344629288e-03</internalNodes>
      <leafValues>
        -3.3491241931915283e-01 5.2782617509365082e-02</leafValues></_>
    <_>
      <internalNodes>
        0 -1 1477 -2.1429618354886770e-03</internalNodes>
      <leafValues>
        2.6777750253677368e-01 -7.0593290030956268e-02</leafValues></_>
    <_>
      <internalNodes>
        0 -1 74250 2.4096164852380753e-03</internalNodes>
      <leafValues>
        -3.6382246762514114e-02 4.8301789164543152e-01</leafValues></_>
    <_>
      <internalNodes>
        0 -1 74292 -1.4544692821800709e-03</internalNodes>
      <leafValues>
        -2.8961551189422607e-01 6.0616474598646164e-02</leafValues></_>
    <_>
      <internalNodes>
        0 -1 67959 -3.2930442830547690e-04</internalNodes>
      <leafValues>
        2.3328194022178650e-01 -7.9679951071739197e-02</leafValues></_>
    <_>
      <internalNodes>
        0 -1 75109 7.5885560363531113e-03</internalNodes>
      <leafValues>
        -1.8828665837645531e-02 8.3488732576370239e-01</leafValues></_>
    <_>
      <internalNodes>
        0 -1 27926 4.3662567622959614e-03</internalNodes>
      <leafValues>
        4.6788156032562256e-02 -4.1688936948776245e-01</leafValues></_>
    <_>
      <internalNodes>
        0 -1 54683 -1.1711694300174713e-02</internalNodes>
      <leafValues>
        4.6706569194793701e-01 -3.7296321243047714e-02</leafValues></_>
    <_>
      <internalNodes>
        0 -1 6264 1.4110890217125416e-02</internalNodes>
      <leafValues>
        7.9805709421634674e-02 -2.1539799869060516e-01</leafValues></_>
    <_>
      <internalNodes>
        0 -1 6189 1.0182604193687439e-01</internalNodes>
      <leafValues>
        -1.8844235688447952e-02 9.0490251779556274e-01</leafValues></_>
    <_>
      <internalNodes>
        0 -1 27481 -6.3701870385557413e-04</internalNodes>
      <leafValues>
        2.2358889877796173e-01 -6.7970655858516693e-02</leafValues></_>
    <_>
      <internalNodes>
        0 -1 77731 3.8806889206171036e-03</internalNodes>
      <leafValues>
        3.6829486489295959e-02 -4.8480564355850220e-01</leafValues></_>
    <_>
      <internalNodes>
        0 -1 25803 6.7136948928236961e-03</internalNodes>
      <leafValues>
        -4.8516832292079926e-02 3.8358500599861145e-01</leafValues></_>
    <_>
      <internalNodes>
        0 -1 6488 -3.3793725073337555e-02</internalNodes>
      <leafValues>
        -8.6765730381011963e-01 2.5791004300117493e-02</leafValues></_>
    <_>
      <internalNodes>
        0 -1 39290 -2.3862019588705152e-04</internalNodes>
      <leafValues>
        -1.7023302614688873e-01 1.0356097668409348e-01</leafValues></_>
    <_>
      <internalNodes>
        0 -1 271 5.4256677627563477e-02</internalNodes>
      <leafValues>
        3.6139838397502899e-02 -5.9796071052551270e-01</leafValues></_>
    <_>
      <internalNodes>
        0 -1 28146 -1.4734623022377491e-02</internalNodes>
      <leafValues>
        -2.2230111062526703e-01 9.3750894069671631e-02</leafValues></_>
    <_>
      <internalNodes>
        0 -1 26327 3.0760151275899261e-05</internalNodes>
      <leafValues>
        1.3291534781455994e-01 -1.5943531692028046e-01</leafValues></_>
    <_>
      <internalNodes>
        0 -1 16399 -1.2219109386205673e-01</internalNodes>
      <leafValues>
        7.2119528055191040e-01 -2.1894967183470726e-02</leafValues></_>
    <_>
      <internalNodes>
        0 -1 17609 -9.4443157315254211e-02</internalNodes>
      <leafValues>
        -2.6304271817207336e-01 7.7349334955215454e-02</leafValues></_>
    <_>
      <internalNodes>
        0 -1 35457 -1.0443176329135895e-01</internalNodes>
      <leafValues>
        -8.1645119190216064e-01 2.1633481606841087e-02</leafValues></_>
    <_>
      <internalNodes>
        0 -1 69943 7.9013081267476082e-03</internalNodes>
      <leafValues>
        1.0706728696823120e-01 -1.8410055339336395e-01</leafValues></_>
    <_>
      <internalNodes>
        0 -1 58109 6.2223529675975442e-04</internalNodes>
      <leafValues>
        -7.7731199562549591e-02 2.5809299945831299e-01</leafValues></_>
    <_>
      <internalNodes>
        0 -1 19527 -9.3422338366508484e-02</internalNodes>
      <leafValues>
        3.2091894745826721e-01 -5.4258484393358231e-02</leafValues></_>
    <_>
      <internalNodes>
        0 -1 7891 -7.6672043651342392e-03</internalNodes>
      <leafValues>
        -2.0246863365173340e-01 8.5934974253177643e-02</leafValues></_>
    <_>
      <internalNodes>
        0 -1 76861 -1.6671996563673019e-03</internalNodes>
      <leafValues>
        2.9251942038536072e-01 -6.7688144743442535e-02</leafValues></_>
    <_>
      <internalNodes>
        0 -1 14649 3.1214710325002670e-03</internalNodes>
      <leafValues>
        1.0880907624959946e-01 -1.6265380382537842e-01</leafValues></_>
    <_>
      <internalNodes>
        0 -1 39507 -1.4314501640910748e-05</internalNodes>
      <leafValues>
        -1.8440569937229156e-01 1.1285386979579926e-01</leafValues></_>
    <_>
      <internalNodes>
        0 -1 76636 9.0675381943583488e-03</internalNodes>
      <leafValues>
        -3.2609991729259491e-02 6.1177843809127808e-01</leafValues></_>
    <_>
      <internalNodes>
        0 -1 72382 -1.2648662086576223e-03</internalNodes>
      <leafValues>
        4.1922774910926819e-01 -3.8150388747453690e-02</leafValues></_>
    <_>
      <internalNodes>
        0 -1 77493 7.7489987015724182e-03</internalNodes>
      <leafValues>
        6.0720898211002350e-02 -3.2254007458686829e-01</leafValues></_>
    <_>
      <internalNodes>
        0 -1 56356 1.2946544447913766e-03</internalNodes>
      <leafValues>
        -4.2419333010911942e-02 4.2885392904281616e-01</leafValues></_>
    <_>
      <internalNodes>
        0 -1 52344 2.9031848534941673e-03</internalNodes>
      <leafValues>
        4.5445065945386887e-02 -3.8850685954093933e-01</leafValues></_>
    <_>
      <internalNodes>
        0 -1 41326 -2.4708430282771587e-04</internalNodes>
      <leafValues>
        2.5285354256629944e-01 -6.6256351768970490e-02</leafValues></_></weakClassifiers></stage8>
</opencv_storage>
